digraph Tree {
node [shape=box] ;
0 [label="X[5] <= 243.5\ngini = 0.4967\nsamples = 418\nvalue = [192, 226]"] ;
1 [label="X[0] <= 4.5\ngini = 0.4628\nsamples = 77\nvalue = [49, 28]"] ;
0 -> 1 [labeldistance=2.5, labelangle=45, headlabel="True"] ;
2 [label="X[7] <= 11.5\ngini = 0.327\nsamples = 34\nvalue = [27, 7]"] ;
1 -> 2 ;
3 [label="X[5] <= 72.0\ngini = 0.4734\nsamples = 13\nvalue = [8, 5]"] ;
2 -> 3 ;
4 [label="X[9] <= 6.5\ngini = 0.4444\nsamples = 6\nvalue = [2, 4]"] ;
3 -> 4 ;
5 [label="X[8] <= 70.0\ngini = 0.32\nsamples = 5\nvalue = [1, 4]"] ;
4 -> 5 ;
6 [label="gini = 0.0\nsamples = 4\nvalue = [0, 4]"] ;
5 -> 6 ;
7 [label="gini = 0.0\nsamples = 1\nvalue = [1, 0]"] ;
5 -> 7 ;
8 [label="gini = 0.0\nsamples = 1\nvalue = [1, 0]"] ;
4 -> 8 ;
9 [label="X[9] <= 5.5\ngini = 0.2449\nsamples = 7\nvalue = [6, 1]"] ;
3 -> 9 ;
10 [label="gini = 0.0\nsamples = 5\nvalue = [5, 0]"] ;
9 -> 10 ;
11 [label="X[4] <= 51.5\ngini = 0.5\nsamples = 2\nvalue = [1, 1]"] ;
9 -> 11 ;
12 [label="gini = 0.0\nsamples = 1\nvalue = [1, 0]"] ;
11 -> 12 ;
13 [label="gini = 0.0\nsamples = 1\nvalue = [0, 1]"] ;
11 -> 13 ;
14 [label="X[7] <= 16.5\ngini = 0.1723\nsamples = 21\nvalue = [19, 2]"] ;
2 -> 14 ;
15 [label="gini = 0.0\nsamples = 13\nvalue = [13, 0]"] ;
14 -> 15 ;
16 [label="X[1] <= 3.5\ngini = 0.375\nsamples = 8\nvalue = [6, 2]"] ;
14 -> 16 ;
17 [label="gini = 0.0\nsamples = 1\nvalue = [0, 1]"] ;
16 -> 17 ;
18 [label="X[9] <= 4.5\ngini = 0.2449\nsamples = 7\nvalue = [6, 1]"] ;
16 -> 18 ;
19 [label="gini = 0.0\nsamples = 5\nvalue = [5, 0]"] ;
18 -> 19 ;
20 [label="X[4] <= 19.0\ngini = 0.5\nsamples = 2\nvalue = [1, 1]"] ;
18 -> 20 ;
21 [label="gini = 0.0\nsamples = 1\nvalue = [1, 0]"] ;
20 -> 21 ;
22 [label="gini = 0.0\nsamples = 1\nvalue = [0, 1]"] ;
20 -> 22 ;
23 [label="X[3] <= 91.5\ngini = 0.4997\nsamples = 43\nvalue = [22, 21]"] ;
1 -> 23 ;
24 [label="X[9] <= 3.5\ngini = 0.4861\nsamples = 36\nvalue = [15, 21]"] ;
23 -> 24 ;
25 [label="X[8] <= 71.5\ngini = 0.4444\nsamples = 12\nvalue = [8, 4]"] ;
24 -> 25 ;
26 [label="X[5] <= 42.5\ngini = 0.5\nsamples = 8\nvalue = [4, 4]"] ;
25 -> 26 ;
27 [label="gini = 0.0\nsamples = 2\nvalue = [0, 2]"] ;
26 -> 27 ;
28 [label="X[4] <= 14.5\ngini = 0.4444\nsamples = 6\nvalue = [4, 2]"] ;
26 -> 28 ;
29 [label="gini = 0.0\nsamples = 3\nvalue = [3, 0]"] ;
28 -> 29 ;
30 [label="X[2] <= 3.5\ngini = 0.4444\nsamples = 3\nvalue = [1, 2]"] ;
28 -> 30 ;
31 [label="gini = 0.0\nsamples = 2\nvalue = [0, 2]"] ;
30 -> 31 ;
32 [label="gini = 0.0\nsamples = 1\nvalue = [1, 0]"] ;
30 -> 32 ;
33 [label="gini = 0.0\nsamples = 4\nvalue = [4, 0]"] ;
25 -> 33 ;
34 [label="X[4] <= 33.0\ngini = 0.4132\nsamples = 24\nvalue = [7, 17]"] ;
24 -> 34 ;
35 [label="X[5] <= 74.5\ngini = 0.4922\nsamples = 16\nvalue = [7, 9]"] ;
34 -> 35 ;
36 [label="X[3] <= 89.0\ngini = 0.375\nsamples = 12\nvalue = [3, 9]"] ;
35 -> 36 ;
37 [label="gini = 0.0\nsamples = 7\nvalue = [0, 7]"] ;
36 -> 37 ;
38 [label="X[7] <= 12.5\ngini = 0.48\nsamples = 5\nvalue = [3, 2]"] ;
36 -> 38 ;
39 [label="gini = 0.0\nsamples = 2\nvalue = [2, 0]"] ;
38 -> 39 ;
40 [label="X[7] <= 16.0\ngini = 0.4444\nsamples = 3\nvalue = [1, 2]"] ;
38 -> 40 ;
41 [label="gini = 0.0\nsamples = 2\nvalue = [0, 2]"] ;
40 -> 41 ;
42 [label="gini = 0.0\nsamples = 1\nvalue = [1, 0]"] ;
40 -> 42 ;
43 [label="gini = 0.0\nsamples = 4\nvalue = [4, 0]"] ;
35 -> 43 ;
44 [label="gini = 0.0\nsamples = 8\nvalue = [0, 8]"] ;
34 -> 44 ;
45 [label="gini = 0.0\nsamples = 7\nvalue = [7, 0]"] ;
23 -> 45 ;
46 [label="X[1] <= 2.5\ngini = 0.487\nsamples = 341\nvalue = [143, 198]"] ;
0 -> 46 [labeldistance=2.5, labelangle=-45, headlabel="False"] ;
47 [label="X[6] <= 12.5\ngini = 0.4579\nsamples = 31\nvalue = [20, 11]"] ;
46 -> 47 ;
48 [label="X[8] <= 34.0\ngini = 0.3403\nsamples = 23\nvalue = [18, 5]"] ;
47 -> 48 ;
49 [label="gini = 0.0\nsamples = 9\nvalue = [9, 0]"] ;
48 -> 49 ;
50 [label="X[6] <= 6.5\ngini = 0.4592\nsamples = 14\nvalue = [9, 5]"] ;
48 -> 50 ;
51 [label="gini = 0.0\nsamples = 4\nvalue = [4, 0]"] ;
50 -> 51 ;
52 [label="X[9] <= 3.0\ngini = 0.5\nsamples = 10\nvalue = [5, 5]"] ;
50 -> 52 ;
53 [label="X[8] <= 44.5\ngini = 0.375\nsamples = 4\nvalue = [1, 3]"] ;
52 -> 53 ;
54 [label="gini = 0.0\nsamples = 3\nvalue = [0, 3]"] ;
53 -> 54 ;
55 [label="gini = 0.0\nsamples = 1\nvalue = [1, 0]"] ;
53 -> 55 ;
56 [label="X[8] <= 43.0\ngini = 0.4444\nsamples = 6\nvalue = [4, 2]"] ;
52 -> 56 ;
57 [label="gini = 0.0\nsamples = 4\nvalue = [4, 0]"] ;
56 -> 57 ;
58 [label="gini = 0.0\nsamples = 2\nvalue = [0, 2]"] ;
56 -> 58 ;
59 [label="X[3] <= 93.0\ngini = 0.375\nsamples = 8\nvalue = [2, 6]"] ;
47 -> 59 ;
60 [label="X[6] <= 15.5\ngini = 0.4444\nsamples = 3\nvalue = [2, 1]"] ;
59 -> 60 ;
61 [label="X[8] <= 40.0\ngini = 0.5\nsamples = 2\nvalue = [1, 1]"] ;
60 -> 61 ;
62 [label="gini = 0.0\nsamples = 1\nvalue = [1, 0]"] ;
61 -> 62 ;
63 [label="gini = 0.0\nsamples = 1\nvalue = [0, 1]"] ;
61 -> 63 ;
64 [label="gini = 0.0\nsamples = 1\nvalue = [1, 0]"] ;
60 -> 64 ;
65 [label="gini = 0.0\nsamples = 5\nvalue = [0, 5]"] ;
59 -> 65 ;
66 [label="X[0] <= 2.5\ngini = 0.4787\nsamples = 310\nvalue = [123, 187]"] ;
46 -> 66 ;
67 [label="X[4] <= 84.5\ngini = 0.3702\nsamples = 53\nvalue = [13, 40]"] ;
66 -> 67 ;
68 [label="X[8] <= 45.5\ngini = 0.4444\nsamples = 6\nvalue = [4, 2]"] ;
67 -> 68 ;
69 [label="X[7] <= 16.5\ngini = 0.4444\nsamples = 3\nvalue = [1, 2]"] ;
68 -> 69 ;
70 [label="gini = 0.0\nsamples = 1\nvalue = [1, 0]"] ;
69 -> 70 ;
71 [label="gini = 0.0\nsamples = 2\nvalue = [0, 2]"] ;
69 -> 71 ;
72 [label="gini = 0.0\nsamples = 3\nvalue = [3, 0]"] ;
68 -> 72 ;
73 [label="X[5] <= 748.0\ngini = 0.3096\nsamples = 47\nvalue = [9, 38]"] ;
67 -> 73 ;
74 [label="X[4] <= 210.5\ngini = 0.1975\nsamples = 36\nvalue = [4, 32]"] ;
73 -> 74 ;
75 [label="X[2] <= 7.5\ngini = 0.1139\nsamples = 33\nvalue = [2, 31]"] ;
74 -> 75 ;
76 [label="X[8] <= 35.5\ngini = 0.5\nsamples = 2\nvalue = [1, 1]"] ;
75 -> 76 ;
77 [label="gini = 0.0\nsamples = 1\nvalue = [1, 0]"] ;
76 -> 77 ;
78 [label="gini = 0.0\nsamples = 1\nvalue = [0, 1]"] ;
76 -> 78 ;
79 [label="X[8] <= 29.5\ngini = 0.0624\nsamples = 31\nvalue = [1, 30]"] ;
75 -> 79 ;
80 [label="X[4] <= 125.5\ngini = 0.2449\nsamples = 7\nvalue = [1, 6]"] ;
79 -> 80 ;
81 [label="gini = 0.0\nsamples = 1\nvalue = [1, 0]"] ;
80 -> 81 ;
82 [label="gini = 0.0\nsamples = 6\nvalue = [0, 6]"] ;
80 -> 82 ;
83 [label="gini = 0.0\nsamples = 24\nvalue = [0, 24]"] ;
79 -> 83 ;
84 [label="X[1] <= 4.5\ngini = 0.4444\nsamples = 3\nvalue = [2, 1]"] ;
74 -> 84 ;
85 [label="gini = 0.0\nsamples = 2\nvalue = [2, 0]"] ;
84 -> 85 ;
86 [label="gini = 0.0\nsamples = 1\nvalue = [0, 1]"] ;
84 -> 86 ;
87 [label="X[5] <= 761.0\ngini = 0.4959\nsamples = 11\nvalue = [5, 6]"] ;
73 -> 87 ;
88 [label="gini = 0.0\nsamples = 4\nvalue = [4, 0]"] ;
87 -> 88 ;
89 [label="X[7] <= 21.5\ngini = 0.2449\nsamples = 7\nvalue = [1, 6]"] ;
87 -> 89 ;
90 [label="gini = 0.0\nsamples = 6\nvalue = [0, 6]"] ;
89 -> 90 ;
91 [label="gini = 0.0\nsamples = 1\nvalue = [1, 0]"] ;
89 -> 91 ;
92 [label="X[8] <= 72.5\ngini = 0.4896\nsamples = 257\nvalue = [110, 147]"] ;
66 -> 92 ;
93 [label="X[9] <= 7.5\ngini = 0.4826\nsamples = 241\nvalue = [98, 143]"] ;
92 -> 93 ;
94 [label="X[5] <= 731.5\ngini = 0.4891\nsamples = 230\nvalue = [98, 132]"] ;
93 -> 94 ;
95 [label="X[7] <= 22.5\ngini = 0.4985\nsamples = 182\nvalue = [86, 96]"] ;
94 -> 95 ;
96 [label="X[0] <= 3.5\ngini = 0.4949\nsamples = 109\nvalue = [60, 49]"] ;
95 -> 96 ;
97 [label="X[9] <= 0.5\ngini = 0.2659\nsamples = 19\nvalue = [16, 3]"] ;
96 -> 97 ;
98 [label="gini = 0.0\nsamples = 1\nvalue = [0, 1]"] ;
97 -> 98 ;
99 [label="X[9] <= 5.5\ngini = 0.1975\nsamples = 18\nvalue = [16, 2]"] ;
97 -> 99 ;
100 [label="X[5] <= 703.0\ngini = 0.1107\nsamples = 17\nvalue = [16, 1]"] ;
99 -> 100 ;
101 [label="gini = 0.0\nsamples = 14\nvalue = [14, 0]"] ;
100 -> 101 ;
102 [label="X[8] <= 46.0\ngini = 0.4444\nsamples = 3\nvalue = [2, 1]"] ;
100 -> 102 ;
103 [label="gini = 0.0\nsamples = 2\nvalue = [2, 0]"] ;
102 -> 103 ;
104 [label="gini = 0.0\nsamples = 1\nvalue = [0, 1]"] ;
102 -> 104 ;
105 [label="gini = 0.0\nsamples = 1\nvalue = [0, 1]"] ;
99 -> 105 ;
106 [label="X[4] <= 174.0\ngini = 0.4998\nsamples = 90\nvalue = [44, 46]"] ;
96 -> 106 ;
107 [label="X[3] <= 91.5\ngini = 0.495\nsamples = 80\nvalue = [36, 44]"] ;
106 -> 107 ;
108 [label="X[6] <= 5.5\ngini = 0.4907\nsamples = 44\nvalue = [25, 19]"] ;
107 -> 108 ;
109 [label="X[1] <= 5.5\ngini = 0.3967\nsamples = 11\nvalue = [3, 8]"] ;
108 -> 109 ;
110 [label="X[0] <= 6.5\ngini = 0.5\nsamples = 6\nvalue = [3, 3]"] ;
109 -> 110 ;
111 [label="X[5] <= 715.5\ngini = 0.375\nsamples = 4\nvalue = [3, 1]"] ;
110 -> 111 ;
112 [label="gini = 0.0\nsamples = 3\nvalue = [3, 0]"] ;
111 -> 112 ;
113 [label="gini = 0.0\nsamples = 1\nvalue = [0, 1]"] ;
111 -> 113 ;
114 [label="gini = 0.0\nsamples = 2\nvalue = [0, 2]"] ;
110 -> 114 ;
115 [label="gini = 0.0\nsamples = 5\nvalue = [0, 5]"] ;
109 -> 115 ;
116 [label="X[8] <= 59.5\ngini = 0.4444\nsamples = 33\nvalue = [22, 11]"] ;
108 -> 116 ;
117 [label="X[8] <= 35.5\ngini = 0.4829\nsamples = 27\nvalue = [16, 11]"] ;
116 -> 117 ;
118 [label="X[5] <= 678.0\ngini = 0.2449\nsamples = 7\nvalue = [6, 1]"] ;
117 -> 118 ;
119 [label="gini = 0.0\nsamples = 5\nvalue = [5, 0]"] ;
118 -> 119 ;
120 [label="X[9] <= 3.5\ngini = 0.5\nsamples = 2\nvalue = [1, 1]"] ;
118 -> 120 ;
121 [label="gini = 0.0\nsamples = 1\nvalue = [0, 1]"] ;
120 -> 121 ;
122 [label="gini = 0.0\nsamples = 1\nvalue = [1, 0]"] ;
120 -> 122 ;
123 [label="X[8] <= 39.5\ngini = 0.5\nsamples = 20\nvalue = [10, 10]"] ;
117 -> 123 ;
124 [label="X[4] <= 81.5\ngini = 0.2778\nsamples = 6\nvalue = [1, 5]"] ;
123 -> 124 ;
125 [label="gini = 0.0\nsamples = 1\nvalue = [1, 0]"] ;
124 -> 125 ;
126 [label="gini = 0.0\nsamples = 5\nvalue = [0, 5]"] ;
124 -> 126 ;
127 [label="X[4] <= 91.0\ngini = 0.4592\nsamples = 14\nvalue = [9, 5]"] ;
123 -> 127 ;
128 [label="gini = 0.0\nsamples = 2\nvalue = [0, 2]"] ;
127 -> 128 ;
129 [label="X[0] <= 7.5\ngini = 0.375\nsamples = 12\nvalue = [9, 3]"] ;
127 -> 129 ;
130 [label="X[4] <= 128.0\ngini = 0.2188\nsamples = 8\nvalue = [7, 1]"] ;
129 -> 130 ;
131 [label="gini = 0.0\nsamples = 6\nvalue = [6, 0]"] ;
130 -> 131 ;
132 [label="X[8] <= 41.5\ngini = 0.5\nsamples = 2\nvalue = [1, 1]"] ;
130 -> 132 ;
133 [label="gini = 0.0\nsamples = 1\nvalue = [1, 0]"] ;
132 -> 133 ;
134 [label="gini = 0.0\nsamples = 1\nvalue = [0, 1]"] ;
132 -> 134 ;
135 [label="X[6] <= 8.5\ngini = 0.5\nsamples = 4\nvalue = [2, 2]"] ;
129 -> 135 ;
136 [label="gini = 0.0\nsamples = 1\nvalue = [0, 1]"] ;
135 -> 136 ;
137 [label="X[8] <= 42.0\ngini = 0.4444\nsamples = 3\nvalue = [2, 1]"] ;
135 -> 137 ;
138 [label="gini = 0.0\nsamples = 1\nvalue = [0, 1]"] ;
137 -> 138 ;
139 [label="gini = 0.0\nsamples = 2\nvalue = [2, 0]"] ;
137 -> 139 ;
140 [label="gini = 0.0\nsamples = 6\nvalue = [6, 0]"] ;
116 -> 140 ;
141 [label="X[4] <= 108.5\ngini = 0.4244\nsamples = 36\nvalue = [11, 25]"] ;
107 -> 141 ;
142 [label="X[9] <= 3.5\ngini = 0.4978\nsamples = 15\nvalue = [8, 7]"] ;
141 -> 142 ;
143 [label="gini = 0.0\nsamples = 5\nvalue = [5, 0]"] ;
142 -> 143 ;
144 [label="X[6] <= 13.5\ngini = 0.42\nsamples = 10\nvalue = [3, 7]"] ;
142 -> 144 ;
145 [label="gini = 0.0\nsamples = 6\nvalue = [0, 6]"] ;
144 -> 145 ;
146 [label="X[5] <= 669.5\ngini = 0.375\nsamples = 4\nvalue = [3, 1]"] ;
144 -> 146 ;
147 [label="gini = 0.0\nsamples = 3\nvalue = [3, 0]"] ;
146 -> 147 ;
148 [label="gini = 0.0\nsamples = 1\nvalue = [0, 1]"] ;
146 -> 148 ;
149 [label="X[1] <= 4.5\ngini = 0.2449\nsamples = 21\nvalue = [3, 18]"] ;
141 -> 149 ;
150 [label="X[9] <= 1.5\ngini = 0.3967\nsamples = 11\nvalue = [3, 8]"] ;
149 -> 150 ;
151 [label="X[6] <= 8.5\ngini = 0.4444\nsamples = 3\nvalue = [2, 1]"] ;
150 -> 151 ;
152 [label="gini = 0.0\nsamples = 1\nvalue = [0, 1]"] ;
151 -> 152 ;
153 [label="gini = 0.0\nsamples = 2\nvalue = [2, 0]"] ;
151 -> 153 ;
154 [label="X[8] <= 34.5\ngini = 0.2188\nsamples = 8\nvalue = [1, 7]"] ;
150 -> 154 ;
155 [label="gini = 0.5\nsamples = 2\nvalue = [1, 1]"] ;
154 -> 155 ;
156 [label="gini = 0.0\nsamples = 6\nvalue = [0, 6]"] ;
154 -> 156 ;
157 [label="gini = 0.0\nsamples = 10\nvalue = [0, 10]"] ;
149 -> 157 ;
158 [label="X[7] <= 17.0\ngini = 0.32\nsamples = 10\nvalue = [8, 2]"] ;
106 -> 158 ;
159 [label="gini = 0.0\nsamples = 1\nvalue = [0, 1]"] ;
158 -> 159 ;
160 [label="X[5] <= 707.0\ngini = 0.1975\nsamples = 9\nvalue = [8, 1]"] ;
158 -> 160 ;
161 [label="gini = 0.0\nsamples = 7\nvalue = [7, 0]"] ;
160 -> 161 ;
162 [label="X[5] <= 723.0\ngini = 0.5\nsamples = 2\nvalue = [1, 1]"] ;
160 -> 162 ;
163 [label="gini = 0.0\nsamples = 1\nvalue = [0, 1]"] ;
162 -> 163 ;
164 [label="gini = 0.0\nsamples = 1\nvalue = [1, 0]"] ;
162 -> 164 ;
165 [label="X[5] <= 691.0\ngini = 0.4586\nsamples = 73\nvalue = [26, 47]"] ;
95 -> 165 ;
166 [label="X[5] <= 669.0\ngini = 0.3848\nsamples = 50\nvalue = [13, 37]"] ;
165 -> 166 ;
167 [label="X[8] <= 38.0\ngini = 0.4387\nsamples = 40\nvalue = [13, 27]"] ;
166 -> 167 ;
168 [label="X[4] <= 160.5\ngini = 0.4898\nsamples = 28\nvalue = [12, 16]"] ;
167 -> 168 ;
169 [label="X[9] <= 4.5\ngini = 0.5\nsamples = 24\nvalue = [12, 12]"] ;
168 -> 169 ;
170 [label="X[6] <= 9.5\ngini = 0.4898\nsamples = 21\nvalue = [9, 12]"] ;
169 -> 170 ;
171 [label="X[7] <= 24.5\ngini = 0.4082\nsamples = 7\nvalue = [5, 2]"] ;
170 -> 171 ;
172 [label="gini = 0.0\nsamples = 4\nvalue = [4, 0]"] ;
171 -> 172 ;
173 [label="X[8] <= 33.5\ngini = 0.4444\nsamples = 3\nvalue = [1, 2]"] ;
171 -> 173 ;
174 [label="gini = 0.0\nsamples = 2\nvalue = [0, 2]"] ;
173 -> 174 ;
175 [label="gini = 0.0\nsamples = 1\nvalue = [1, 0]"] ;
173 -> 175 ;
176 [label="X[7] <= 27.5\ngini = 0.4082\nsamples = 14\nvalue = [4, 10]"] ;
170 -> 176 ;
177 [label="X[1] <= 5.5\ngini = 0.1975\nsamples = 9\nvalue = [1, 8]"] ;
176 -> 177 ;
178 [label="gini = 0.0\nsamples = 8\nvalue = [0, 8]"] ;
177 -> 178 ;
179 [label="gini = 0.0\nsamples = 1\nvalue = [1, 0]"] ;
177 -> 179 ;
180 [label="X[2] <= 7.5\ngini = 0.48\nsamples = 5\nvalue = [3, 2]"] ;
176 -> 180 ;
181 [label="X[7] <= 29.0\ngini = 0.4444\nsamples = 3\nvalue = [1, 2]"] ;
180 -> 181 ;
182 [label="gini = 0.5\nsamples = 2\nvalue = [1, 1]"] ;
181 -> 182 ;
183 [label="gini = 0.0\nsamples = 1\nvalue = [0, 1]"] ;
181 -> 183 ;
184 [label="gini = 0.0\nsamples = 2\nvalue = [2, 0]"] ;
180 -> 184 ;
185 [label="gini = 0.0\nsamples = 3\nvalue = [3, 0]"] ;
169 -> 185 ;
186 [label="gini = 0.0\nsamples = 4\nvalue = [0, 4]"] ;
168 -> 186 ;
187 [label="X[3] <= 95.5\ngini = 0.1528\nsamples = 12\nvalue = [1, 11]"] ;
167 -> 187 ;
188 [label="gini = 0.0\nsamples = 11\nvalue = [0, 11]"] ;
187 -> 188 ;
189 [label="gini = 0.0\nsamples = 1\nvalue = [1, 0]"] ;
187 -> 189 ;
190 [label="gini = 0.0\nsamples = 10\nvalue = [0, 10]"] ;
166 -> 190 ;
191 [label="X[0] <= 4.5\ngini = 0.4915\nsamples = 23\nvalue = [13, 10]"] ;
165 -> 191 ;
192 [label="X[1] <= 3.5\ngini = 0.375\nsamples = 8\nvalue = [2, 6]"] ;
191 -> 192 ;
193 [label="gini = 0.0\nsamples = 1\nvalue = [1, 0]"] ;
192 -> 193 ;
194 [label="X[6] <= 5.5\ngini = 0.2449\nsamples = 7\nvalue = [1, 6]"] ;
192 -> 194 ;
195 [label="gini = 0.0\nsamples = 1\nvalue = [1, 0]"] ;
194 -> 195 ;
196 [label="gini = 0.0\nsamples = 6\nvalue = [0, 6]"] ;
194 -> 196 ;
197 [label="X[4] <= 160.0\ngini = 0.3911\nsamples = 15\nvalue = [11, 4]"] ;
191 -> 197 ;
198 [label="gini = 0.0\nsamples = 7\nvalue = [7, 0]"] ;
197 -> 198 ;
199 [label="X[9] <= 3.5\ngini = 0.5\nsamples = 8\nvalue = [4, 4]"] ;
197 -> 199 ;
200 [label="gini = 0.0\nsamples = 2\nvalue = [0, 2]"] ;
199 -> 200 ;
201 [label="X[8] <= 32.0\ngini = 0.4444\nsamples = 6\nvalue = [4, 2]"] ;
199 -> 201 ;
202 [label="gini = 0.0\nsamples = 2\nvalue = [0, 2]"] ;
201 -> 202 ;
203 [label="gini = 0.0\nsamples = 4\nvalue = [4, 0]"] ;
201 -> 203 ;
204 [label="X[8] <= 27.5\ngini = 0.375\nsamples = 48\nvalue = [12, 36]"] ;
94 -> 204 ;
205 [label="X[1] <= 3.5\ngini = 0.4938\nsamples = 9\nvalue = [5, 4]"] ;
204 -> 205 ;
206 [label="gini = 0.0\nsamples = 2\nvalue = [0, 2]"] ;
205 -> 206 ;
207 [label="X[7] <= 27.0\ngini = 0.4082\nsamples = 7\nvalue = [5, 2]"] ;
205 -> 207 ;
208 [label="X[4] <= 99.0\ngini = 0.2778\nsamples = 6\nvalue = [5, 1]"] ;
207 -> 208 ;
209 [label="X[9] <= 5.5\ngini = 0.5\nsamples = 2\nvalue = [1, 1]"] ;
208 -> 209 ;
210 [label="gini = 0.0\nsamples = 1\nvalue = [0, 1]"] ;
209 -> 210 ;
211 [label="gini = 0.0\nsamples = 1\nvalue = [1, 0]"] ;
209 -> 211 ;
212 [label="gini = 0.0\nsamples = 4\nvalue = [4, 0]"] ;
208 -> 212 ;
213 [label="gini = 0.0\nsamples = 1\nvalue = [0, 1]"] ;
207 -> 213 ;
214 [label="X[4] <= 133.5\ngini = 0.2945\nsamples = 39\nvalue = [7, 32]"] ;
204 -> 214 ;
215 [label="X[9] <= 3.5\ngini = 0.1327\nsamples = 28\nvalue = [2, 26]"] ;
214 -> 215 ;
216 [label="X[1] <= 3.5\ngini = 0.2778\nsamples = 12\nvalue = [2, 10]"] ;
215 -> 216 ;
217 [label="X[8] <= 36.5\ngini = 0.5\nsamples = 2\nvalue = [1, 1]"] ;
216 -> 217 ;
218 [label="gini = 0.0\nsamples = 1\nvalue = [0, 1]"] ;
217 -> 218 ;
219 [label="gini = 0.0\nsamples = 1\nvalue = [1, 0]"] ;
217 -> 219 ;
220 [label="X[7] <= 19.5\ngini = 0.18\nsamples = 10\nvalue = [1, 9]"] ;
216 -> 220 ;
221 [label="X[6] <= 8.0\ngini = 0.375\nsamples = 4\nvalue = [1, 3]"] ;
220 -> 221 ;
222 [label="gini = 0.0\nsamples = 1\nvalue = [1, 0]"] ;
221 -> 222 ;
223 [label="gini = 0.0\nsamples = 3\nvalue = [0, 3]"] ;
221 -> 223 ;
224 [label="gini = 0.0\nsamples = 6\nvalue = [0, 6]"] ;
220 -> 224 ;
225 [label="gini = 0.0\nsamples = 16\nvalue = [0, 16]"] ;
215 -> 225 ;
226 [label="X[8] <= 57.0\ngini = 0.4959\nsamples = 11\nvalue = [5, 6]"] ;
214 -> 226 ;
227 [label="X[8] <= 44.5\ngini = 0.4688\nsamples = 8\nvalue = [5, 3]"] ;
226 -> 227 ;
228 [label="X[4] <= 136.0\ngini = 0.375\nsamples = 4\nvalue = [1, 3]"] ;
227 -> 228 ;
229 [label="gini = 0.0\nsamples = 1\nvalue = [1, 0]"] ;
228 -> 229 ;
230 [label="gini = 0.0\nsamples = 3\nvalue = [0, 3]"] ;
228 -> 230 ;
231 [label="gini = 0.0\nsamples = 4\nvalue = [4, 0]"] ;
227 -> 231 ;
232 [label="gini = 0.0\nsamples = 3\nvalue = [0, 3]"] ;
226 -> 232 ;
233 [label="gini = 0.0\nsamples = 11\nvalue = [0, 11]"] ;
93 -> 233 ;
234 [label="X[5] <= 796.5\ngini = 0.375\nsamples = 16\nvalue = [12, 4]"] ;
92 -> 234 ;
235 [label="X[8] <= 93.0\ngini = 0.2604\nsamples = 13\nvalue = [11, 2]"] ;
234 -> 235 ;
236 [label="X[4] <= 103.5\ngini = 0.1528\nsamples = 12\nvalue = [11, 1]"] ;
235 -> 236 ;
237 [label="X[5] <= 740.5\ngini = 0.375\nsamples = 4\nvalue = [3, 1]"] ;
236 -> 237 ;
238 [label="gini = 0.0\nsamples = 2\nvalue = [2, 0]"] ;
237 -> 238 ;
239 [label="gini = 0.5\nsamples = 2\nvalue = [1, 1]"] ;
237 -> 239 ;
240 [label="gini = 0.0\nsamples = 8\nvalue = [8, 0]"] ;
236 -> 240 ;
241 [label="gini = 0.0\nsamples = 1\nvalue = [0, 1]"] ;
235 -> 241 ;
242 [label="X[6] <= 8.5\ngini = 0.4444\nsamples = 3\nvalue = [1, 2]"] ;
234 -> 242 ;
243 [label="gini = 0.0\nsamples = 2\nvalue = [0, 2]"] ;
242 -> 243 ;
244 [label="gini = 0.0\nsamples = 1\nvalue = [1, 0]"] ;
242 -> 244 ;
}